svm_type c_svc
kernel_type rbf
gamma 0.025641
nr_class 3
total_sv 120
rho -2.71497 2.6579 4.27219
label 0 1 2
probA -4.20012 -5.15049 -4.53777
probB -0.0489265 0.944236 0.66604
nr_sv 49 31 40
SV
0 0.08757404569366418 1:0.0156112 2:0.352662 3:0.327498 4:0.186503 5:0.259131 6:0.25148 7:0 8:0 9:0.585243 10:0.404513 11:-0.0525638 12:0.0669859 13:0.137109 14:0.107759 15:0.266344 16:0.0554065 17:0 18:0.534612 19:0.473859 20:0.332083 21:0.230243 22:3.93791e-15 23:0 24:0 25:0.175933 26:0.709074 27:0.278239 28:0.00599444 29:0.0219535 30:0.198423 31:0.181178 32:0 33:0.836592 34:0.950972 35:0.480097 36:0.926446 37:0.84601 38:0.862073 39:0.569418 
0.7116476770554948 0.1724472657743092 1:0.0329706 2:0.360052 3:0.250255 4:-0.0981455 5:0.195296 6:0.256774 7:0.0795933 8:0.210116 9:0.209982 10:0.0369632 11:0.257344 12:0.618665 13:0.0728546 14:0.178923 15:0.352094 16:0.0228274 17:-0.00487367 18:0.00978417 19:0.0631775 20:0.0955632 21:0.612255 22:0.487043 23:0.247507 24:0.12015 25:0.00827813 26:0.107479 27:0.429081 28:0.321983 29:-0.0978589 30:0.260629 31:0.277532 32:-0.0796647 33:0.619836 34:0.775468 35:0.998051 36:0.295597 37:1.24208 38:0.712732 39:0.701801 
1 1 1:0.0422839 2:-0.0922538 3:-0.550499 4:-0.512461 5:-0.0539451 6:-0.163962 7:-0.155317 8:-0.0925026 9:-0.0169098 10:-0.0403326 11:-0.566584 12:-0.464485 13:-0.241314 14:-0.10148 15:-0.156317 16:-0.000284967 17:0 18:0 19:-0.1547 20:-0.624737 21:-0.0863107 22:-0.215092 23:-0.30877 24:-0.134453 25:-0.046734 26:0 27:-0.428699 28:-0.459064 29:-0.235344 30:-0.214401 31:-0.147329 32:-0.0859584 33:-0.969972 34:-0.625301 35:-1.04653 36:-0.331008 37:-0.988038 38:-0.677279 39:-1.05765 
1 1 1:0.00960321 2:0.607314 3:-0.0441067 4:0.132242 5:0.0864265 6:0 7:0 8:0.356866 9:0.432312 10:0.277556 11:0.0316617 12:0.319483 13:0.145606 14:0.00731168 15:0 16:0.524342 17:0.390586 18:0.38446 19:0.000637181 20:-0.109735 21:0.214735 22:0.102831 23:0.0629401 24:0.517599 25:0.26522 26:0.574608 27:-0.0842722 28:0.212627 29:0.0246518 30:0.0603635 31:4.84479e-15 32:0.0867621 33:0.386109 34:1.00695 35:0.602566 36:1.05199 37:0.456478 38:1.17261 39:0.341543 
0 0.3374739689238401 1:0.0341623 2:-0.0177383 3:0.275981 4:0.0717884 5:0.282442 6:0.100263 7:0.152841 8:0.310749 9:0.0911127 10:0.245071 11:0.0357598 12:0.651357 13:0.204443 14:0.207958 15:0.170359 16:0.0212104 17:0.0351904 18:0.0858642 19:0.0747146 20:0.0741723 21:0.107469 22:0.621896 23:0.683415 24:0.167784 25:0 26:0.0417907 27:0.170219 28:0.415988 29:0.221752 30:0.0187129 31:0.167659 32:0.0986728 33:0.697911 34:0.784041 35:1.02633 36:0.307995 37:1.08756 38:0.823861 39:0.753012 
0 0.7866879074787679 1:0.0182269 2:0.313054 3:0.115266 4:0.388756 5:0.355524 6:0.106933 7:0.132732 8:0.623016 9:0.192332 10:0.067222 11:0.154592 12:0.13398 13:0.151294 14:0.115628 15:0 16:0.251029 17:0.287402 18:0.064878 19:0.494675 20:0.244054 21:0.228758 22:0 23:5.59997e-05 24:0.593013 25:0.368568 26:0.16688 27:0.128543 28:0.150004 29:0.128192 30:-0.00182945 31:0.0373684 32:0.252091 33:1.07648 34:0.919035 35:0.494888 36:0.86008 37:0.820528 38:1.04608 39:0.421092 
0.2018600297467445 0 1:0.0235337 2:0 3:-0.321122 4:-0.725114 5:0.0503372 6:-0.321707 7:-0.146561 8:-0.102637 9:-0.00399273 10:-0.0827622 11:-0.556332 12:-0.187132 13:-0.404564 14:-0.0859054 15:-0.193683 16:0.0566042 17:-0.117022 18:0 19:-0.373808 20:-0.49891 21:-0.0811337 22:-0.0749747 23:-0.239743 24:-0.264155 25:-0.0380723 26:2.62965e-15 27:-0.781308 28:-0.0552337 29:-0.385928 30:0.00895254 31:-0.202506 32:-0.042349 33:-1.00819 34:-0.620833 35:-0.990175 36:-0.498497 37:-0.88978 38:-0.77582 39:-0.928299 
0.4784873116004275 0 1:0.0260121 2:-0.369191 3:-0.309153 4:-0.0857572 5:-0.141663 6:-0.0580724 7:-0.13972 8:-0.065085 9:-0.35307 10:-0.0490849 11:-0.0124072 12:-0.777311 13:-0.389051 14:-0.0572308 15:-0.313556 16:0.213116 17:-0.234356 18:0 19:0 20:-0.424174 21:-0.0807443 22:-0.244874 23:-0.6658 24:-0.155204 25:0 26:-0.275668 27:-0.18448 28:-0.0953944 29:-0.243177 30:-0.300203 31:-0.0658643 32:-0.282968 33:-0.579056 34:-0.711967 35:-1.14839 36:-0.349216 37:-0.957959 38:-0.833277 39:-0.803607 
0.305808049104477 0 1:0.00931737 2:-1.66191e-15 3:3.32381e-15 4:0.180283 5:0.542696 6:0.242317 7:-0.1559 8:0.374525 9:0.122465 10:0.111515 11:0.152894 12:0.208456 13:0.331963 14:0.0704824 15:0.338099 16:0.455731 17:0.166064 18:0 19:0 20:0.0397596 21:0.659951 22:0.0314178 23:0.213536 24:0.10701 25:0.264965 26:0.254156 27:0 28:0.101041 29:0.507872 30:0.273183 31:-0.062145 32:0.0531809 33:0.875469 34:0.597425 35:0.926237 36:0.708987 37:0.847102 38:0.676753 39:0.83297 
0.3299764086443047 0.9260021187949623 1:0.0360885 2:-0.284558 3:0.0424218 4:-0.280467 5:-0.236936 6:-0.0387359 7:0.0127251 8:-0.521311 9:-0.0345443 10:-0.00389831 11:-0.611689 12:-0.363704 13:-0.191405 14:-0.275485 15:-0.128512 16:-0.0150404 17:-0.197985 18:-0.415781 19:-0.168224 20:-0.094279 21:-0.10495 22:-0.176025 23:-0.307824 24:-0.0906881 25:0 26:0 27:-0.334419 28:-0.617091 29:-0.206451 30:-0.293551 31:-0.119285 32:0 33:-0.648549 34:-0.820957 35:-1.05657 36:-0.765131 37:-0.667767 38:-0.576026 39:-1.12806 
1 0 1:0.0801412 2:-0.518968 3:-0.0704945 4:-0.0940131 5:-0.142099 6:-0.120021 7:0 8:0 9:-0.353747 10:-0.534706 11:-0.110387 12:-0.261903 13:-0.197518 14:-0.112535 15:-0.0824489 16:-0.759493 17:-0.124583 18:-0.198544 19:-0.183493 20:-0.222235 21:0 22:0 23:-0.432031 24:-0.216339 25:-0.048816 26:-0.212567 27:-0.12543 28:-0.0834595 29:-0.159401 30:-0.167245 31:-0.125508 32:0 33:-0.452935 34:-0.909705 35:-0.885239 36:-1.06872 37:-0.575794 38:-0.672507 39:-0.525969 
0 0.03023936772769559 1:0.0938874 2:0.177966 3:0.348005 4:0.0795737 5:0.385881 6:0.199218 7:0.31991 8:0.140201 9:0.338266 10:0.419514 11:0.0016614 12:0.219065 13:0.0321565 14:0.225344 15:0.106981 16:0.110917 17:0.036932 18:0.95413 19:0.216326 20:0.00787522 21:0.237468 22:0.079171 23:0.0703272 24:0.224323 25:0.689717 26:0.255418 27:-0.100261 28:0.0187708 29:0.034989 30:0.0939219 31:0.0837567 32:0.15022 33:1.00917 34:1.02317 35:0.551642 36:1.07617 37:0.71741 38:1.06316 39:0.210764 
1 0.9024856377711546 1:0.0214106 2:-0.40051 3:-0.152267 4:-0.0404005 5:-0.171798 6:-0.0345256 7:-2.42937e-15 8:-0.565949 9:-0.345243 10:-0.0518018 11:-0.171477 12:-0.342899 13:-0.0649106 14:-0.0285159 15:-0.0885946 16:-0.377002 17:-0.491993 18:-0.203675 19:-0.0577846 20:-0.205735 21:-0.104815 22:-0.0411973 23:-0.00310783 24:-0.319641 25:-0.495398 26:-0.164647 27:-0.367782 28:-0.0658229 29:-0.103161 30:-0.00780597 31:-0.0284014 32:-0.0150298 33:-0.53808 34:-0.992169 35:-0.575684 36:-1.06605 37:-0.448287 38:-1.07456 39:-0.40068 
0 1 1:0.0389779 2:0 3:0 4:0.514175 5:0.376208 6:0.220478 7:-0.0231426 8:0.483077 9:0 10:0.0529469 11:1.0542 12:1.50613e-14 13:0.0899001 14:0.128769 15:2.69445e-15 16:0.238197 17:-0.204763 18:0.211544 19:0.10538 20:0.619603 21:0.259003 22:0.373605 23:0.213206 24:-0.199434 25:0.199434 26:0.469063 27:0.781451 28:-0.158634 29:0.233937 30:0.0277565 31:0.133913 32:0.0833088 33:1.04454 34:0.977997 35:0.781825 36:0.372288 37:1.17147 38:0.96587 39:0.713159 
0 1 1:0.0186966 2:-0.00254943 3:-0.641366 4:-0.541149 5:0.328452 6:-0.523829 7:0.218969 8:-0.154869 9:-0.254455 10:0 11:-0.543901 12:-0.47865 13:-0.0156287 14:-0.326082 15:-0.206535 16:0 17:0 18:0 19:-0.0538437 20:-0.517812 21:-0.213742 22:-0.671912 23:-0.113486 24:-1.13363e-14 25:2.26726e-14 26:-1.13363e-14 27:-0.162082 28:-0.815943 29:-0.457712 30:0.528626 31:-0.296627 32:-0.238072 33:-0.752187 34:-0.77505 35:-1.00515 36:-0.334305 37:-1.20048 38:-0.483291 39:-0.983023 
0 1 1:0.0302968 2:1.07751 3:0 4:0 5:0.527957 6:0.434418 7:0.171919 8:0.135768 9:0.0950893 10:0.0977606 11:-0.0176966 12:0.176961 13:0.598233 14:0.360686 15:0.29732 16:0.180548 17:-0.151189 18:0.233817 19:0 20:0 21:0.0930054 22:1.15604 23:0.232495 24:0.0892552 25:0 26:0 27:0 28:0 29:0 30:0.466036 31:0.880137 32:0.224623 33:1.17237 34:0.492887 35:1.21071 36:0.402011 37:1.20839 38:0.417793 39:0.852753 
0 0.499050233315299 1:0.109622 2:-0.586798 3:-0.315345 4:0.0370098 5:-0.0290627 6:-0.438061 7:-0.184907 8:0.0596306 9:-0.0139862 10:-0.607196 11:-0.346657 12:-0.228738 13:-0.29751 14:-0.148828 15:7.38017e-15 16:-1.47603e-14 17:-0.667147 18:-0.506119 19:0.158985 20:-0.371456 21:0.25849 22:-0.443548 23:-0.158491 24:-0.423503 25:0.217586 26:-0.834167 27:-0.239075 28:-0.0596717 29:-0.0159087 30:-0.0575656 31:-0.68502 32:-0.295329 33:-0.710603 34:-0.858539 35:-0.899618 36:-1.10022 37:-0.597768 38:-1.05147 39:-0.803217 
0 1 1:0.0547635 2:0 3:-0.0200732 4:-0.499316 5:-0.185133 6:-0.271829 7:-0.38594 8:-0.173978 9:-0.0345271 10:-0.0713115 11:-0.905911 12:-0.188682 13:-0.0967651 14:-0.131418 15:-0.147994 16:-0.0287146 17:0 18:-0.0271105 19:-0.251896 20:-0.361065 21:-0.34578 22:-0.271324 23:-0.149464 24:-0.164157 25:-0.16139 26:-0.809269 27:-0.310059 28:0.129056 29:-0.219328 30:-0.145739 31:-0.0540661 32:0 33:-1.01315 34:-0.981554 35:-0.886095 36:-0.361911 37:-1.0729 38:-1.17705 39:-0.594458 
1 1 1:0.0246487 2:0.334163 3:0.404684 4:0.18812 5:0.159797 6:0.0411294 7:0.0581394 8:0.221881 9:0.101284 10:0.0838698 11:0.0404852 12:0.289265 13:0.341599 14:0.33859 15:0.339982 16:0.184729 17:0.0283511 18:0.0482811 19:0.0207522 20:0.387715 21:0.402025 22:0.360922 23:0.187388 24:-0.00288702 25:0.121511 26:0.0933695 27:0.127931 28:0.165589 29:0.531313 30:0.23859 31:-0.0017326 32:-0.0923832 33:0.69914 34:0.462091 35:1.07272 36:0.559726 37:1.08485 38:0.475498 39:0.89905 
1 0.8483995619816063 1:0.036327 2:-0.657593 3:0.000677779 4:-0.0476785 5:-0.0451283 6:-0.132058 7:-0.15391 8:-0.0357875 9:-0.316864 10:-0.432746 11:-0.0368947 12:-0.0942238 13:-0.279408 14:-0.301328 15:-0.0735438 16:-0.13748 17:-0.569303 18:-0.165546 19:-0.350534 20:-0.0155513 21:-0.137065 22:-0.123316 23:-0.0720007 24:0 25:-0.0340933 26:-0.581204 27:-0.285768 28:-0.0694711 29:0.0951243 30:-0.415572 31:-0.102214 32:-0.133613 33:-0.406768 34:-0.825092 35:-0.768994 36:-1.08733 37:-0.494451 38:-0.702285 39:-0.639349 
0 0.2487237609742095 1:0.091518 2:0.075501 3:0.55513 4:0.193672 5:0.373703 6:0.37279 7:0 8:0.216406 9:0.398132 10:0.14384 11:0.10367 12:0.0477058 13:0.0688182 14:0.279827 15:0.222429 16:0.0509821 17:0.00149083 18:0.0374967 19:0.0202344 20:0.410833 21:0.468364 22:0.342394 23:-0.0311128 24:0.218538 25:0.141546 26:0.225188 27:0.512359 28:0.108484 29:0.179543 30:0.354722 31:-0.00492909 32:0.118214 33:1.15096 34:0.824583 35:0.525848 36:0.357672 37:1.09467 38:0.831669 39:0.863723 
0 1 1:0.0242746 2:-0.133414 3:-0.129516 4:-0.223863 5:-0.286039 6:0.0107902 7:-0.210036 8:-0.240809 9:-0.192761 10:-0.15606 11:-0.00908846 12:-0.589063 13:-0.400501 14:-0.102245 15:-0.18891 16:-0.146228 17:-0.143849 18:-4.3936e-15 19:-0.03633 20:-0.456047 21:-0.361364 22:-0.0292708 23:-0.494954 24:0.00359812 25:-0.196429 26:0 27:0 28:-0.780453 29:-0.0737223 30:-0.256415 31:-0.0499185 32:-0.274888 33:-0.709001 34:-0.724055 35:-1.11461 36:-0.503261 37:-0.992316 38:-0.618642 39:-0.964875 
0 1 1:0.0528989 2:0.205922 3:0.442528 4:0.460208 5:0.144343 6:0.126231 7:0.248455 8:0.180864 9:0.240239 10:0.399967 11:0.118554 12:0.292889 13:0.000644453 14:0.0245603 15:0.127545 16:0.218508 17:0.147888 18:0 19:0.112128 20:0.433884 21:0.146089 22:0.260533 23:0.237656 24:0.24717 25:0.133336 26:0.298184 27:0.849758 28:-0.0214096 29:0.0387277 30:0.0610183 31:0.0399123 32:0.147721 33:1.02831 34:0.967153 35:0.512977 36:0.545268 37:0.90485 38:1.15483 39:0.615557 
1 0.6966293709402613 1:0.142391 2:0.0774892 3:0.390806 4:0.51696 5:0.0523043 6:0.188878 7:0.26016 8:0.0844191 9:0.0772696 10:0.502411 11:0.212649 12:-0.0203222 13:0.233072 14:0.0886785 15:0.310402 16:0.0671968 17:0.111062 18:0.0656467 19:0 20:0.297185 21:0.473966 22:0.060705 23:0.0442022 24:0.0776566 25:0.508423 26:0.0532198 27:0.0554394 28:0.0485218 29:0.499345 30:0.317866 31:0.00336782 32:-0.0265251 33:0.954872 34:0.799808 35:0.685168 36:0.459368 37:0.803083 38:0.683742 39:0.813088 
1 1 1:0.0968635 2:-0.25592 3:-0.0234503 4:-0.433798 5:-0.31649 6:-0.271585 7:-0.03962 8:-0.185463 9:-0.176255 10:-0.124414 11:-0.0231716 12:0 13:0 14:-0.232038 15:-0.718533 16:-0.16782 17:-0.0836593 18:-0.180526 19:-0.187428 20:-0.000793275 21:-0.000709138 22:-0.325999 23:-0.485721 24:-0.145503 25:-0.12903 26:-0.440268 27:-0.117809 28:-5.86255e-15 29:-2.119e-16 30:6.2687e-16 31:-5.2092e-16 32:-0.29262 33:-0.990313 34:-0.507614 35:-0.624882 36:-0.849369 37:-0.666207 38:-0.955042 39:-0.227023 
0.4652091130521676 0 1:0.0674424 2:0.513587 3:0.0815583 4:0.291186 5:0.382377 6:0.110802 7:0.313021 8:0.194279 9:0.177546 10:0.402684 11:-0.0408655 12:-0.00952907 13:0.0869026 14:0.241421 15:0.16649 16:0 17:0.0130998 18:0.338495 19:0.324443 20:0.02438 21:0.301069 22:0.552724 23:0.0165854 24:0.266927 25:0.445516 26:0.323038 27:-0.0811185 28:0.00882575 29:0.129155 30:0.179699 31:0.261852 32:0.214236 33:1.05273 34:0.788636 35:0.424019 36:0.580547 37:1.05494 38:0.995024 39:0.491293 
1 1 1:0.0825249 2:0.257706 3:0.383073 4:0.305845 5:0.169697 6:0.20201 7:0.146432 8:0.0497831 9:0.106819 10:0.13082 11:0.685575 12:0.259052 13:-0.0162635 14:0.374258 15:0.137355 16:0 17:0 18:0.0992962 19:0.73489 20:0.372996 21:0.0084579 22:-0.0253496 23:0.262338 24:0.0414316 25:0.0425266 26:0.158788 27:0.362631 28:0.293761 29:0.0812008 30:0.00451211 31:0.00545434 32:0.206434 33:0.8862 34:0.770944 35:0.905803 36:0.693419 37:0.805429 38:0.570692 39:0.580973 
1 1 1:0.0563485 2:-0.21945 3:-0.0123368 4:-0.115011 5:-0.11221 6:-0.0973863 7:-0.0132709 8:-0.0418637 9:-0.802588 10:-0.270408 11:-0.0485516 12:-0.244344 13:-0.156393 14:-0.00664893 15:-0.0696222 16:-0.696046 17:-0.271495 18:-0.0541135 19:-0.157176 20:-0.206387 21:-0.110581 22:-0.218269 23:-0.40639 24:-0.107621 25:0.0145458 26:-0.318356 27:-0.273676 28:-0.133244 29:0.109883 30:-0.215275 31:-0.0171148 32:-0.0106559 33:-0.346799 34:-1.15379 35:-0.637983 36:-1.00678 37:-0.753707 38:-0.730768 39:-0.379995 
1 1 1:0.0866452 2:0.430649 3:0.451375 4:0.238111 5:0.10769 6:0.066551 7:0.0804496 8:0.170201 9:0.0672088 10:0.748234 11:0.0406951 12:0.104739 13:0.201019 14:0.210628 15:0.21413 16:0.172982 17:0.515321 18:0.290653 19:0.225639 20:0.077614 21:0.0911559 22:0.194356 23:0.012987 24:0.0652186 25:0.453928 26:0.202072 27:0.10179 28:0.0389163 29:0.0956644 30:0.156575 31:0.245931 32:0.149822 33:0.748075 34:0.86714 35:0.7877 36:1.16007 37:0.49803 38:0.770605 39:0.503501 
0 1 1:0.03596 2:-0.377822 3:-0.295997 4:-0.143453 5:-0.234051 6:-0.0699358 7:-0.0165001 8:-0.0280488 9:-1.03863 10:-0.151299 11:-0.0598161 12:-0.13224 13:-0.101795 14:-0.0589675 15:-0.127977 16:-0.391396 17:-0.145061 18:-0.353643 19:-0.131112 20:-0.111952 21:-0.254039 22:-0.0556176 23:-0.0180913 24:-0.826764 25:-0.254781 26:-0.134097 27:-0.151042 28:-0.18602 29:0 30:0 31:-0.176508 32:-0.411767 33:-0.648354 34:-1.26224 35:-0.472889 36:-0.878458 37:-0.726126 38:-1.14299 39:-0.431848 
0 1 1:0.0541227 2:0.492998 3:0.495124 4:0.403572 5:-0.0182937 6:0.0591357 7:0.13826 8:0.359827 9:0.443018 10:0.109381 11:0.151473 12:0.280599 13:0.104109 14:0.12239 15:0 16:0 17:0.690443 18:0.201395 19:0.302355 20:0.0898717 21:0.286732 22:6.87595e-15 23:0.154147 24:0.676549 25:0.152098 26:0.120138 27:0.0181047 28:0.280072 29:0.0236752 30:0.123081 31:0.0229309 32:0 33:0.853092 34:1.02591 35:0.509743 36:1.04976 37:0.78845 38:0.91445 39:0.377261 
1 0 1:0.0161124 2:-0.665043 3:-0.191204 4:-0.0450754 5:-0.156847 6:-0.132298 7:-0.0913618 8:-1.31071e-14 9:6.55354e-15 10:-0.0809322 11:-0.746692 12:-0.447559 13:-0.101744 14:-0.0902022 15:-0.051064 16:-0.0526033 17:-0.0145226 18:-0.817203 19:-0.180233 20:-0.245769 21:-0.189716 22:-0.123352 23:0 24:0 25:-0.262833 26:-0.511978 27:-0.125803 28:-0.0243886 29:-0.0257296 30:-0.0903458 31:-0.225114 32:-0.304605 33:-0.574217 34:-0.617774 35:-0.944278 36:-0.879387 37:-0.747986 38:-0.754169 39:-0.488742 
0 1 1:0.0372621 2:-0.161438 3:-0.235092 4:-0.374509 5:3.16712e-15 6:-0.193345 7:-0.780619 8:-0.10089 9:-0.250963 10:-0.219077 11:-0.0259019 12:-0.135642 13:-0.181556 14:-0.173511 15:-0.388627 16:-0.243401 17:-0.0856421 18:-0.109769 19:-0.215187 20:-0.0374624 21:0 22:-0.808141 23:-0.330499 24:-0.100242 25:-0.179182 26:-0.152731 27:0 28:0 29:-0.712159 30:-0.451094 31:0.0869945 32:-0.108718 33:-1.0019 34:-0.974862 35:-0.735522 36:-0.706412 37:-0.97601 38:-0.71949 39:-1.07597 
0 1 1:0.0491869 2:0 3:0.0861187 4:0.771589 5:0.1663 6:0.228902 7:0.265745 8:0.0521426 9:0.0805678 10:0.468571 11:0.292711 12:0.219355 13:0.142104 14:0.138992 15:0.10477 16:0.101508 17:0.0104689 18:0.0117497 19:0.424214 20:0.778659 21:-0.00991766 22:0.299013 23:0.00488808 24:0.0698884 25:0.413996 26:0.631609 27:0.116832 28:0.00216061 29:0.00210073 30:-0.00906335 31:0.0173817 32:0.0665865 33:1.11696 34:0.866497 35:0.748041 36:0.568314 37:1.05555 38:1.09746 39:0.215703 
0 1 1:0.0328679 2:-0.158683 3:-0.372796 4:-0.12137 5:-0.658932 6:-0.117659 7:-0.160266 8:-0.0524591 9:-0.182027 10:-0.195252 11:-0.0967825 12:-0.237109 13:-0.712111 14:-0.320113 15:-0.07017 16:0.0055546 17:-0.0875284 18:-0.098657 19:-0.0506633 20:0 21:-0.688034 22:-0.341776 23:-0.148285 24:-0.104646 25:-0.248339 26:-0.0397169 27:0 28:-0.339535 29:-0.600923 30:-0.045093 31:-0.311047 32:-0.148943 33:-1.15961 34:-0.582957 35:-1.26633 36:-0.294341 37:-1.09786 38:-0.594829 39:-1.09574 
1 1 1:0.059868 2:-0.23614 3:-0.0784648 4:0.0374815 5:-0.112991 6:-0.0147337 7:0.0380048 8:-0.14503 9:-0.222401 10:-0.162413 11:-0.0169445 12:0 13:-0.465956 14:-0.558863 15:-0.396982 16:-0.148995 17:-0.169174 18:-0.407851 19:-0.305713 20:-0.0102709 21:0.00291354 22:-0.435722 23:-0.144658 24:-0.0787772 25:-0.0215432 26:0 27:0 28:-0.760902 29:-0.143013 30:-0.0955591 31:-0.447987 32:-0.123335 33:-0.210152 34:-0.446645 35:-1.18818 36:-1.06662 37:-0.675991 38:-0.439207 39:-1.05189 
1 1 1:0.0445411 2:0.158647 3:0.255847 4:0.22577 5:0.01773 6:0.124037 7:0.115385 8:-9.27608e-05 9:-0.044279 10:0.0973163 11:0.0310691 12:0.590871 13:0.150817 14:0.260861 15:0.576794 16:0.442117 17:0.0139459 18:0.164169 19:0.119236 20:0 21:0 22:0.414094 23:0.371304 24:0.535401 25:-0.17309 26:0.423087 27:0 28:0 29:0 30:0.0844867 31:0.43112 32:0.209285 33:0.5059 34:0.277009 35:1.22436 36:0.890185 37:0.723459 38:0.845979 39:0.423921 
0 1 1:0.123247 2:0 3:0.799604 4:0.529683 5:0.241509 6:0.306884 7:0.483475 8:0.0574578 9:0.19745 10:0.0497182 11:-0.0489849 12:0.282385 13:0.166975 14:0.0596182 15:0.0158174 16:0.32914 17:0.450105 18:0.303538 19:0.488013 20:0.231121 21:0.728313 22:0.0892568 23:-0.0726535 24:9.23812e-15 25:0.132928 26:0.0712246 27:0.0351933 28:0.0336631 29:0.0973688 30:0.0463826 31:-0.0793246 32:0.224831 33:1.54547 34:0.636555 35:0.500386 36:1.24409 37:1.25885 38:0.198429 39:0.209066 
1 0 1:0.138971 2:0.28655 3:0.336279 4:0.324477 5:0.197938 6:0.233227 7:0.181129 8:0.0343853 9:0.360055 10:0.398259 11:0.268765 12:-0.0782955 13:0.155504 14:0.240127 15:0.177707 16:0.0514859 17:0.505979 18:0.462994 19:0.210663 20:0.281252 21:0.0825252 22:0.147154 23:0.696157 24:-0.014027 25:0.0703282 26:0.0284575 27:0.202884 28:0.0686324 29:0.110363 30:0.0785505 31:0.062868 32:0.0695142 33:0.956463 34:0.955002 35:0.605863 36:1.21978 37:0.96211 38:0.587469 39:0.378238 
0 1 1:0.0842887 2:-0.11248 3:-0.0553527 4:-0.267668 5:-0.0287818 6:-0.0164511 7:-0.0684816 8:-0.502676 9:-0.0692906 10:-0.467126 11:-0.166302 12:-0.0446271 13:-0.185082 14:-0.0672117 15:-0.497491 16:-0.685714 17:-0.10874 18:-0.118938 19:-0.10005 20:-0.0391936 21:-0.0206693 22:-0.168081 23:-0.811603 24:-0.10549 25:-0.0233552 26:-0.0168775 27:-0.303492 28:2.12599e-15 29:-0.141157 30:-0.000739903 31:-0.077838 32:-1.04854 33:-0.452785 34:-0.937247 35:-0.871245 36:-1.05269 37:-0.689917 38:-0.712839 39:-0.567546 
1 1 1:0.0958707 2:0.471367 3:0.559397 4:0.235521 5:-0.125391 6:0.203845 7:0.226057 8:0 9:0.368284 10:0.346605 11:0.140164 12:0.405457 13:0.0366299 14:0.00135497 15:0.272302 16:0 17:0.379608 18:0.74048 19:0.0804627 20:0.103957 21:0.213729 22:0.05256 23:0.310715 24:0.446165 25:0.293463 26:0.0792741 27:0.00175564 28:0.00279668 29:-0.0236652 30:0.155948 31:0.171152 32:0.0370536 33:0.708272 34:0.966485 35:0.630516 36:1.15979 37:0.792124 38:0.866695 39:0.211215 
0 0.5584255758526677 1:0.0301891 2:0 3:0 4:0.537567 5:0.56051 6:0.259908 7:0.212811 8:0 9:0.0191813 10:0.0178388 11:0.802333 12:0.0126134 13:2.47809e-15 14:0.1285 15:0.231559 16:0.100484 17:0.141178 18:0.0551279 19:0.0619808 20:0.103537 21:1.13832 22:0.256771 23:0.0351493 24:0.0334518 25:0.00356835 26:0 27:0.404718 28:0.501521 29:0.18312 30:0.0406706 31:0.265172 32:-0.0312212 33:1.27273 34:0.606092 35:0.652991 36:0.461452 37:1.48487 38:0.425246 39:0.925201 
1 0.02113947389321989 1:0.0127739 2:-0.126859 3:-0.599148 4:-0.0950458 5:-0.210346 6:-0.0846541 7:0.0145253 8:-0.0941203 9:-0.230013 10:-0.242762 11:-0.00565707 12:-0.459493 13:-0.410092 14:-0.380133 15:-0.115482 16:-0.085672 17:-0.119925 18:0 19:-0.305631 20:-0.341385 21:0.0346404 22:-0.209634 23:-0.297169 24:-0.0372567 25:-0.307968 26:-0.106393 27:0 28:-0.462564 29:-0.362392 30:-0.352302 31:0.00363603 32:-0.285885 33:-0.689476 34:-0.605553 35:-1.19274 36:-0.570303 37:-0.69301 38:-0.729533 39:-1.07187 
1 1 1:0.0497413 2:-0.970941 3:-0.171874 4:-0.720555 5:0.652559 6:0.131334 7:-0.230437 8:0.113866 9:0.225108 10:0.146935 11:1.06044 12:0.102185 13:0.231491 14:0.0297431 15:0 16:0.174261 17:0.165483 18:0.207859 19:0.326975 20:0.131527 21:0.237895 22:0.326795 23:0 24:0.0476756 25:0.668508 26:0.0866832 27:0.312872 28:0.233226 29:0.113296 30:0.108536 31:0 32:0.717118 33:-0.154809 34:0.884178 35:0.949358 36:0.662261 37:0.806685 38:1.05887 39:0.696795 
1 1 1:0.0681133 2:-0.825178 3:-0.100995 4:0.100995 5:0.209918 6:-0.106176 7:-0.542039 8:-0.765797 9:0.161941 10:-0.0776394 11:-0.242112 12:0.0186127 13:-0.328499 14:-2.81294e-15 15:5.62589e-15 16:-2.81294e-15 17:-0.639914 18:-0.561735 19:-0.0590281 20:-0.107165 21:-0.202955 22:-5.62589e-15 23:1.12518e-14 24:-0.524454 25:-0.500397 26:0.0701849 27:-0.260537 28:0.466783 29:-0.453716 30:-0.0559243 31:-0.259441 32:-0.295254 33:-0.459526 34:-0.906152 35:-0.456108 36:-1.12663 37:-0.57051 38:-0.855228 39:-0.450679 
0 1 1:0.047383 2:-0.348859 3:-0.0243572 4:-0.0791912 5:-0.626335 6:-0.396167 7:-0.0478558 8:-0.339961 9:-0.0812859 10:0 11:-0.170314 12:-0.490685 13:-0.1938 14:-0.271813 15:-0.256657 16:-0.164081 17:-0.0234453 18:-0.281646 19:-0.261462 20:-0.272293 21:-0.216423 22:-0.165255 23:-0.348075 24:-0.0256429 25:0 26:0 27:0 28:-0.399849 29:-0.70218 30:-0.468767 31:0 32:-0.24217 33:-1.1879 34:-0.663454 35:-1.02492 36:-0.751103 37:-0.927258 38:-0.328616 39:-1.41885 
0 0.5281839520970987 1:0.0194829 2:0.149499 3:0.125334 4:0 5:0.0844211 6:0.663997 7:0.281997 8:0.0546812 9:0.186882 10:0.15731 11:0.141508 12:0.348398 13:0.515841 14:-0.0616625 15:0.292493 16:0.118023 17:0.00470341 18:0.130046 19:-0.00434285 20:0.206213 21:-0.00721376 22:0.479464 23:0.476201 24:0.160551 25:0.309583 26:0.0492066 27:0.121937 28:0.257595 29:0.298817 30:0.314247 31:0.0800414 32:-0.0881143 33:0.848887 34:0.791299 35:1.0241 36:0.371093 37:0.822402 38:0.938792 39:0.82422 
0.9186544760899304 0 1:0.00817551 2:0.11825 3:0.526103 4:0.376607 5:-0.0280602 6:0.181466 7:-0.0301218 8:0.176202 9:0.20336 10:0.0201969 11:0.183519 12:0.562552 13:0.20109 14:0.149101 15:0.176891 16:0.118158 17:0.131766 18:0.111608 19:0.343238 20:0.453469 21:0.0805507 22:0.105429 23:0.302253 24:0.285856 25:0.254042 26:0.0787004 27:-0.111625 28:-0.161108 29:0.597152 30:0.112339 31:0.362613 32:0.253087 33:0.716331 34:0.607619 35:0.954888 36:0.710464 37:0.926072 38:0.609392 39:0.770278 
1 0 1:0.0157535 2:-0.026311 3:-0.153944 4:-0.167212 5:0 6:-0.0178061 7:-0.432859 8:-0.0298904 9:-0.228156 10:-0.187359 11:-0.0504375 12:-0.362678 13:-0.26161 14:0 15:-0.616346 16:-0.112201 17:-0.223637 18:-0.147571 19:-0.100247 20:-0.116112 21:-0.254682 22:-0.0447103 23:-0.402385 24:-0.545915 25:-0.0279597 26:-0.00486157 27:-0.1614 28:-0.145967 29:-0.231196 30:-0.00640234 31:0 32:-0.650153 33:-0.446101 34:-0.726445 35:-0.941922 36:-0.807371 37:-0.793351 38:-0.776855 39:-0.570433 
-1 1 1:0.97925 2:-0.82376 3:0.00637066 4:0.00169699 5:0 6:0.126822 7:0.0256666 8:8.46598e-15 9:-1.21129e-14 10:7.35889e-15 11:-0.0352619 12:-0.0705413 13:5.53545e-15 14:-8.40086e-15 15:8.40086e-15 16:-8.40086e-15 17:0.0660211 18:0.0679584 19:-3.90738e-15 20:6.18668e-15 21:-3.90738e-15 22:1.62807e-15 23:0.00719215 24:0.0632652 25:2.40955e-15 26:-2.40955e-15 27:-1.75832e-15 28:0.0589305 29:0.14166 30:-1.43922e-14 31:0.0299434 32:-0.0562684 33:-0.0892579 34:0.00924643 35:-0.0705479 36:0.117023 37:0.0363643 38:0.0657324 39:0.18745 
-1 0 1:0.978003 2:-0.515592 3:-0.132872 4:-1.34625e-14 5:-0.0942133 6:-0.196535 7:-1.20921e-15 8:0 9:8.10168e-15 10:-1.08829e-14 11:4.03069e-15 12:-1.20921e-15 13:0.262362 14:0.00295164 15:0 16:3.547e-15 17:-3.547e-15 18:-4.83682e-15 19:0.00122717 20:0.0219219 21:-1.53166e-15 22:-1.45105e-15 23:6.4491e-15 24:-6.4491e-15 25:0.0127851 26:0.0968307 27:-8.30321e-15 28:-6.36848e-15 29:0.00636534 30:0.0938008 31:-5.80419e-15 32:-0.153746 33:-0.430206 34:-0.0486728 35:0.264576 36:0.0068316 37:0.0170552 38:0.0854335 39:0.0642032 
-1 0.5877911590693794 1:0.976623 2:0 3:0 4:0 5:0 6:0 7:0 8:-0.0944149 9:-0.176532 10:3.94277e-15 11:-7.49724e-15 12:3.55447e-15 13:0 14:0 15:-0.00515345 16:-0.0578448 17:3.46486e-15 18:3.5246e-15 19:-9.37902e-15 20:1.17686e-14 21:-8.30372e-15 22:-0.0371863 23:-0.0672052 24:-6.45181e-15 25:3.34538e-15 26:3.34538e-15 27:-0.174782 28:-0.0509281 29:0 30:-4.54016e-15 31:0.228493 32:-0.123503 33:-0.0234428 34:-0.247504 35:-0.0170348 36:-0.0459634 37:-0.0615036 38:-0.142911 39:-0.0427851 
-1 0 1:0.968872 2:0 3:0 4:-0.0686197 5:-0.0912934 6:2.0382e-15 7:-0.0107605 8:-0.336425 9:5.65704e-15 10:0 11:3.32767e-16 12:-0.0191743 13:-0.0141467 14:6.32257e-15 15:-6.32257e-15 16:3.66044e-15 17:-0.0516895 18:-0.0462108 19:-1.24788e-15 20:0 21:-0.0144319 22:-0.0266621 23:6.23938e-15 24:-9.15109e-16 25:-0.0141431 26:-0.00510292 27:-8.65194e-15 28:-0.0175121 29:-0.0692263 30:4.32597e-15 31:0.0399836 32:0.0808815 33:-0.231688 34:-0.263094 35:-0.028528 36:-0.0863595 37:-0.0459706 38:-0.0290104 39:-0.0447169 
-0 1 1:0.984048 2:0.00493847 3:0 4:0 5:-0.257409 6:-0.00130412 7:3.74218e-16 8:5.93403e-15 9:0.0156645 10:0.125509 11:3.8491e-15 12:-1.35253e-14 13:7.6982e-15 14:-1.87109e-15 15:0.0025306 16:0.0258424 17:8.01896e-15 18:-8.01896e-15 19:2.29877e-15 20:-2.29877e-15 21:-0.0302026 22:-0.276012 23:-2.08493e-15 24:3.3145e-15 25:0 26:-0.0440044 27:-0.0294159 28:6.78939e-15 29:-6.78939e-15 30:-0.0485116 31:-0.105807 32:0.333115 33:-0.257153 34:0.109524 35:0.0390488 36:0.0206474 37:-0.237759 38:-0.116171 39:-0.0328234 
-1 0.9711289304565873 1:0.991389 2:0 3:0 4:0 5:0 6:0 7:0 8:0 9:0 10:0 11:0 12:-0.0527526 13:-0.0303886 14:-8.8241e-15 15:9.84438e-15 16:-1.02029e-15 17:-7.80381e-15 18:7.80381e-15 19:-7.80381e-15 20:7.80381e-15 21:0.0808504 22:0.0022908 23:0 24:0 25:0 26:0 27:-0.049671 28:-0.187178 29:-8.89763e-15 30:9.55944e-16 31:6.98574e-15 32:-0.277035 33:0 34:-0.0131779 35:-0.0699633 36:-1.94865e-15 37:0.0825686 38:-0.0709254 39:-0.22986 
-1 0.5045610865794384 1:0.984566 2:0.0852891 3:0.0256485 4:0.00857659 5:2.59837e-15 6:-5.71641e-15 7:5.71641e-15 8:0.100045 9:0.0514981 10:0 11:-7.79511e-16 12:7.79511e-16 13:-0.149977 14:-0.233186 15:1.88382e-15 16:-3.74598e-15 17:1.88382e-15 18:0.0760194 19:0.276424 20:-5.88964e-15 21:2.68498e-15 22:0.0309731 23:0.0205485 24:1.90547e-15 25:-0.00801603 26:-0.0224314 27:-1.90547e-15 28:0.0600025 29:0.0962476 30:-3.5511e-15 31:-0.137731 32:-0.112633 33:0.0652524 34:0.126596 35:-0.325833 36:0.138271 37:0.190347 38:0.00814698 39:0.0426363 
-1 1 1:0.994755 2:0.172144 3:0.212541 4:0.0283058 5:0.015736 6:0.0550675 7:-1.01333e-14 8:3.97034e-15 9:2.13332e-15 10:-2.13332e-15 11:0 12:-0.0124619 13:-0.0837763 14:0 15:0 16:-3.25924e-15 17:-3.37775e-15 18:1.00147e-14 19:-0.0506565 20:-0.0199426 21:4.20738e-15 22:-4.20738e-15 23:3.3185e-15 24:0.0184603 25:0.0644165 26:6.45921e-15 27:4.74071e-16 28:0.0297734 29:0.0430145 30:5.39256e-15 31:-0.00196194 32:-0.0456212 33:0.226909 34:0.0106455 35:-0.093124 36:-0.0303106 37:-0.0356756 38:0.0857032 39:0.0529637 
-0.8634025697600887 1 1:0.982719 2:0.0458559 3:-0.164401 4:-0.154076 5:-1.05874e-14 6:1.05874e-14 7:0.340966 8:0.00780464 9:1.37052e-14 10:-3.44253e-15 11:-0.0154328 12:-0.0952245 13:1.88365e-15 14:2.27337e-15 15:-2.27337e-15 16:-4.22197e-15 17:0.163007 18:0.0822484 19:-9.61309e-15 20:1.08472e-14 21:-7.27477e-15 22:2.46823e-15 23:-0.0158927 24:-0.00382861 25:-7.20982e-15 26:1.36402e-15 27:-0.0164005 28:-0.269855 29:-6.17057e-15 30:6.17057e-15 31:-0.226509 32:-0.121347 33:-0.0141449 34:0.144887 35:-0.0791496 36:0.224805 37:0.0115465 38:-0.0861688 39:-0.352938 
-1 1 1:0.986409 2:-0.149679 3:0 4:0.0379691 5:0.174463 6:8.66389e-16 7:-5.76337e-15 8:1.16021e-14 9:-1.16021e-14 10:9.83164e-15 11:-5.80104e-15 12:0.0500893 13:0.0359776 14:0 15:-3.95526e-15 16:6.40375e-15 17:-6.40375e-15 18:0.0904768 19:0.0508669 20:-7.00645e-15 21:7.00645e-15 22:-3.5409e-15 23:-0.0176314 24:-0.0874744 25:-2.71218e-15 26:-5.08533e-15 27:0.0946464 28:0.057516 29:-3.84225e-15 30:-0.326174 31:-0.0212172 32:0.285019 33:0.166156 34:0.0125119 35:0.073555 36:0.0933173 37:0.0173543 38:-0.0127667 39:-0.0961465 
-0 1 1:0.980199 2:-0.189556 3:-0.0242402 4:-0.0197566 5:-4.77229e-15 6:4.77229e-15 7:0 8:7.37983e-16 9:-0.122557 10:-0.0723828 11:-1.34805e-14 12:9.93817e-15 13:-9.93817e-15 14:9.93817e-15 15:0.00512563 16:0.00272014 17:2.85353e-15 18:-5.70707e-15 19:2.85353e-15 20:2.85353e-15 21:-0.0480304 22:-0.266311 23:2.16475e-15 24:5.11668e-15 25:-7.28143e-15 26:0.00650596 27:0.0996638 28:1.16109e-14 29:-6.98624e-15 30:-0.0158189 31:-0.00856655 32:0.262012 33:-0.0736862 34:-0.17691 35:-0.0147867 36:0.00460293 37:-0.248381 38:-0.0112446 39:0.0988412 
-0 0.2169553227413106 1:0.989003 2:-0.163096 3:-0.0293682 4:-0.181385 5:1.6031e-14 6:-5.58384e-15 7:-7.20495e-16 8:-4.14285e-15 9:0.0143651 10:0.00368764 11:-1.0207e-15 12:-4.44305e-15 13:4.98342e-15 14:0.0565307 15:0.0983729 16:-6.78466e-15 17:1.08074e-15 18:4.62318e-15 19:-2.28157e-15 20:-0.0582783 21:-0.28267 22:-1.38095e-15 23:4.56313e-15 24:-3.90268e-15 25:0 26:0.148457 27:0.0671186 28:-5.28363e-15 29:5.28363e-15 30:-0.0527156 31:-0.0911597 32:-0.0772821 33:-0.18973 34:0.0171309 35:0.0925435 36:0.048806 37:-0.326473 38:0.144995 39:-0.0332466 
-0.6971009095467725 0.2045935373096752 1:0.984017 2:0.0993515 3:-0.180585 4:-0.0168105 5:-6.61296e-15 6:8.84048e-15 7:-0.0915499 8:-0.154837 9:0 10:-1.49662e-14 11:1.49662e-14 12:0 13:-7.51789e-15 14:0.0500753 15:0.0228161 16:8.91009e-15 17:-1.05111e-14 18:1.05111e-14 19:-7.30906e-15 20:3.68933e-15 21:0.00490748 22:0.116397 23:-6.26491e-16 24:7.51789e-15 25:-3.41089e-15 26:-4.10699e-15 27:-0.178085 28:-0.0359756 29:1.25994e-14 30:-1.25994e-14 31:-0.10541 32:0.537218 33:-0.162378 34:-0.162043 35:0.0489681 36:0.0239233 37:0.092236 38:-0.0688957 39:-0.0563806 
-1 1 1:0.969325 2:-0.0900259 3:-0.0148511 4:1.10459e-14 5:-3.21883e-15 6:-0.160245 7:-0.163142 8:-5.88189e-15 9:5.88189e-15 10:2.68622e-15 11:-2.9641e-15 12:-0.0325588 13:-0.0125331 14:1.38942e-16 15:8.61442e-15 16:-1.15785e-14 17:-0.0269927 18:-0.0313754 19:2.3157e-15 20:-2.3157e-15 21:8.89231e-15 22:-0.0930633 23:-0.00400895 24:3.33461e-15 25:-0.012539 26:-0.00216584 27:1.94519e-15 28:-0.378117 29:-0.00062928 30:0.114108 31:0.0792902 32:0.112722 33:-0.232008 34:-0.129436 35:-0.036954 36:-0.0505272 37:-0.0796555 38:-0.133085 39:-0.13226 
-1 1 1:0.97616 2:0.111965 3:0.0854304 4:-2.3661e-15 5:-4.73221e-15 6:0.0585457 7:0.00553752 8:-3.30268e-15 9:0 10:6.06314e-15 11:0.0242845 12:0.0859988 13:-3.40127e-15 14:6.85184e-15 15:-1.08446e-15 16:1.08446e-15 17:0.0651843 18:0.0756132 19:-5.22514e-15 20:5.22514e-15 21:-9.85876e-16 22:-4.23927e-15 23:0.0655363 24:0.184051 25:-6.70396e-15 26:1.06475e-14 27:-5.32373e-15 28:-0.0259074 29:-0.021038 30:-2.56328e-15 31:-0.00697618 32:-0.256006 33:0.117315 34:0.0510308 35:0.0766544 36:0.121936 37:0.0974949 38:0.164478 39:-0.106491 
-1 0 1:0.990974 2:0.0903657 3:0.00526365 4:0.00578725 5:0.101719 6:0 7:6.1825e-15 8:-1.25122e-14 9:0.0495425 10:0.00844757 11:3.7782e-15 12:-6.23157e-15 13:-0.0823215 14:-0.179909 15:-8.09614e-15 16:8.09614e-15 17:-8.09614e-15 18:7.37239e-15 19:0 20:-0.0694331 21:-0.0159765 22:-6.52291e-15 23:0 24:0 25:0.0034256 26:0.00109341 27:-1.90137e-16 28:-6.48918e-15 29:-0.0145974 30:-0.0131732 31:0 32:0 33:0.131257 34:0.0558785 35:-0.215483 36:-0.0619815 37:-0.0680638 38:0.00424566 39:-0.0242043 
-1 0 1:0.977747 2:-0.361754 3:0.0569463 4:-0.075518 5:1.15359e-15 6:0.0164521 7:0.00411051 8:-6.15246e-15 9:6.15246e-15 10:-0.241648 11:-0.0170289 12:-5.86406e-15 13:0.134041 14:0.0390956 15:-9.13256e-16 16:-0.246037 17:-0.0377569 18:0 19:0 20:0 21:0 22:0 23:0 24:0 25:0 26:0 27:0 28:0 29:0 30:0 31:0 32:0 33:-0.0956118 34:-0.183808 35:0.0335276 36:-0.212885 37:0 38:0 39:0 
-1 1 1:0.968549 2:0.309168 3:3.64705e-15 4:0.00517843 5:0.1646 6:6.96255e-15 7:5.03956e-15 8:-9.34971e-15 9:0.0456411 10:0.0273995 11:-4.57539e-15 12:6.10052e-15 13:-7.62565e-15 14:7.62565e-15 15:-0.0194304 16:-0.00818689 17:3.11657e-15 18:0 19:-3.11657e-15 20:0.285503 21:0.0488849 22:-3.77967e-15 23:3.77967e-15 24:-0.0132572 25:-0.0272612 26:-3.44812e-15 27:0.0338363 28:0.0905187 29:-3.77967e-15 30:0.11726 31:0.0275525 32:-0.0457382 33:0.244659 34:0.0661942 35:-0.00491538 36:0.0547785 37:0.26044 38:0.0023252 39:0.175123 
-1 1 1:0.974265 2:-0.830406 3:-0.110739 4:-0.0374208 5:-0.0501662 6:-0.0486974 7:8.63273e-15 8:0 9:0.0231757 10:0.0163517 11:-3.12999e-15 12:2.52419e-15 13:-0.0099534 14:-0.0975443 15:3.63483e-15 16:-2.22129e-15 17:3.63483e-15 18:-5.09886e-15 19:5.09886e-15 20:-0.0112057 21:-0.00120066 22:-3.28145e-15 23:0 24:-1.71645e-15 25:-0.041709 26:-0.0769963 27:3.35717e-15 28:-4.31636e-15 29:-0.139052 30:-0.00284487 31:0.118572 32:0.125475 33:-0.362933 34:0.0232787 35:-0.0790477 36:-0.0271641 37:-0.00960493 38:-0.0994866 39:-0.0701965 
-0.3008874651956027 0 1:0.98132 2:0.0090615 3:-4.62535e-15 4:-0.178849 5:-0.0147027 6:-2.79853e-15 7:0.00856232 8:0.0293941 9:0 10:-2.64306e-15 11:2.64306e-15 12:-0.0321204 13:-0.377638 14:-1.86569e-15 15:3.80911e-15 16:7.7737e-16 17:0.0057297 18:0.178751 19:2.33211e-15 20:-0.0432683 21:-0.0161854 22:1.02613e-14 23:3.10948e-16 24:-3.10948e-16 25:-4.04232e-15 26:-0.0271272 27:-0.00989289 28:4.1978e-15 29:-0.019128 30:-0.0208507 31:0.103238 32:-0.0674804 33:-0.135073 34:0.0183346 35:-0.401765 36:0.129055 37:-0.00402728 38:-0.0252923 39:-0.0117278 
-1 1 1:0.979038 2:-0.170777 3:0.0956407 4:0.00193705 5:4.90596e-15 6:-4.90596e-15 7:4.90596e-15 8:-0.0357272 9:-0.165439 10:1.04491e-14 11:0 12:0 13:0.0316424 14:0.0151264 15:-1.03216e-14 16:1.03216e-14 17:-6.75367e-15 18:4.96968e-15 19:-0.151002 20:-0.0898006 21:-2.48484e-15 22:2.48484e-15 23:0 24:0.393795 25:0.00870486 26:0 27:-0.0521426 28:-0.0362342 29:6.94481e-15 30:-0.0301036 31:-0.100189 32:-0.704915 33:-0.00190529 34:-0.192255 35:0.0429879 36:-0.0940304 37:-0.0456351 38:0.27002 39:-0.277362 
-0.5502521207910827 1 1:0.992625 2:0.444087 3:-0.0612223 4:-0.0338658 5:5.29551e-15 6:-0.0494808 7:-0.00775994 8:0 9:0.000867775 10:0.0115172 11:0 12:-5.46362e-15 13:8.40557e-15 14:-2.94195e-15 15:0.0201037 16:0.0517309 17:1.93328e-15 18:-1.26084e-15 19:-3.95062e-15 20:6.55634e-15 21:-0.0905552 22:-0.0289523 23:-2.60573e-15 24:2.60573e-15 25:-0.0713465 26:-0.0956655 27:-5.08537e-15 28:2.10139e-15 29:0.216457 30:0.049795 31:-0.0599857 32:0.0244051 33:0.0121492 34:-0.00674242 35:0.0258604 36:0.0488535 37:-0.112277 38:-0.150401 39:0.206105 
-0 1 1:0.996264 2:0.20742 3:6.11225e-15 4:0.0512332 5:0.0881555 6:2.98158e-15 7:-6.03771e-15 8:6.03771e-15 9:-0.0489383 10:-0.0108643 11:2.38527e-15 12:-5.14323e-15 13:2.75796e-15 14:5.14323e-15 15:0.00765807 16:0.0270101 17:1.78895e-15 18:-5.06869e-15 19:2.8325e-15 20:-0.0147789 21:-0.0407196 22:0 23:0 24:1.34171e-15 25:0.00599268 26:0.020317 27:0 28:1.19263e-15 29:-0.0472098 30:-0.0161201 31:-0.0432754 32:-0.14414 33:0.177458 34:-0.057087 35:0.00786565 36:0.0203932 37:-0.0518047 38:0.0212308 39:-0.111719 
-1 0.4011782384064259 1:0.988453 2:0.282565 3:0.130189 4:3.40107e-15 5:4.73482e-15 6:-3.33438e-15 7:0 8:-0.00612096 9:-0.00221891 10:4.73482e-15 11:-4.73482e-15 12:1.40044e-15 13:-2.80088e-15 14:-0.047449 15:-0.00715102 16:-3.06763e-15 17:3.06763e-15 18:0 19:-3.06763e-15 20:0.113837 21:0.140893 22:9.60301e-15 23:-7.0022e-15 24:4.40138e-15 25:-2.60082e-15 26:0.00934548 27:0.00636004 28:-1.73388e-15 29:4.36804e-15 30:0.0169829 31:0.0385156 32:0.0255722 33:0.133544 34:-0.00680964 35:-0.0391641 36:0.012829 37:0.226466 38:0.0101892 39:0.0438724 
-0 1 1:0.990585 2:0.0574414 3:-0.093105 4:-8.25913e-16 5:-3.71661e-15 6:-0.108377 7:-0.0546649 8:5.78139e-16 9:5.74009e-15 10:0.0265842 11:0.140637 12:6.85507e-15 13:-5.28584e-15 14:0 15:5.28584e-15 16:0.00177279 17:0.0840812 18:-1.40405e-15 19:0 20:3.22106e-15 21:-5.03807e-15 22:-0.132925 23:-0.158772 24:-6.77248e-15 25:1.98219e-15 26:5.78139e-15 27:0.0940551 28:0.117811 29:-7.35062e-15 30:-0.0139827 31:-0.0324954 32:0.19764 33:-0.14081 34:0.0359037 35:0.0773747 36:0.0854108 37:-0.179327 38:-0.0359796 39:0.154532 
-1 1 1:0.988751 2:-0.200848 3:-0.0561787 4:-2.19518e-15 5:0.152795 6:0.115301 7:-1.54475e-15 8:-5.89446e-15 9:1.3293e-14 10:-0.0911625 11:-0.0971034 12:-2.68299e-15 13:8.13029e-15 14:-6.82944e-15 15:-0.127366 16:-0.042956 17:6.74814e-15 18:-1.70736e-15 19:0 20:0 21:0.365137 22:0.00365488 23:-7.31726e-16 24:0 25:-0.0187186 26:-0.116809 27:-1.09759e-15 28:6.21967e-15 29:-0.179631 30:-0.0790598 31:0.051195 32:-0.0296836 33:0.161351 34:-0.0883787 35:-0.145654 36:-0.0959448 37:0.367878 38:-0.105461 39:-0.249978 
-0 0.16707839964364 1:0.990232 2:0.123355 3:0.0697703 4:-3.68024e-15 5:-0.0904414 6:-0.153967 7:-1.24653e-15 8:4.7487e-15 9:-0.00877835 10:-0.000611046 11:-2.31499e-15 12:0.0106607 13:0.00222519 14:6.82626e-15 15:-4.57062e-15 16:0.0921375 17:0.0485204 18:4.21447e-15 19:1.06846e-15 20:-0.11315 21:-0.000134941 22:-4.45191e-15 23:-0.0616679 24:-0.00490025 25:0.0454897 26:0.123612 27:0.0490096 28:-0.122725 29:0.221273 30:-0.0979715 31:0.0182603 32:0.273313 33:-0.1406 34:-0.044805 35:0.0330515 36:0.0894096 37:-0.117078 38:0.0980928 39:0.186817 
-1 1 1:0.973947 2:0 3:-0.0129838 4:-0.186743 5:0.199727 6:-0.108415 7:-0.0366681 8:-0.0431385 9:-1.14096e-15 10:0.0951756 11:0.00238597 12:-0.0546833 13:-0.029329 14:0.0901995 15:-0.0269991 16:-0.133507 17:0.189669 18:-0.378587 19:-0.0654495 20:0.194241 21:-0.018408 22:-0.0712778 23:-0.0272698 24:-0.0439473 25:-0.026987 26:0.0293475 27:0.0824682 28:-0.118448 29:-0.0718365 30:-0.13757 31:-0.00979592 32:8.97029e-15 33:-0.0575524 34:-0.0188482 35:-0.0246189 36:-0.170575 37:-0.0771021 38:-0.0576428 39:-0.220477 
-1 1 1:0.988227 2:0.517781 3:1.90387e-14 4:-0.00361486 5:-0.00112444 6:2.92595e-14 7:-2.92595e-14 8:-0.0129046 9:-0.256767 10:0 11:1.79866e-14 12:-5.76172e-15 13:0 14:0.0921596 15:0.0836707 16:7.81589e-15 17:3.20652e-15 18:-0.00786465 19:-0.0100975 20:0 21:0 22:0 23:-0.0583112 24:-0.012252 25:2.53015e-14 26:-6.86396e-15 27:0.00282837 28:0.0171025 29:-1.14733e-14 30:-7.06437e-15 31:-0.0884091 32:0.170899 33:0.115068 34:-0.266449 35:0.111008 36:0.0538752 37:-0.0392308 38:-0.0326575 39:0.0102188 
-1 1 1:0.919737 2:-0.804174 3:-0.243122 4:0.164731 5:-0.618233 6:0.540961 7:0.0263132 8:-0.0813481 9:-0.259779 10:0.306674 11:0.0220014 12:0.363368 13:-0.686704 14:0.186079 15:0.0459012 16:0.238277 17:-0.00994751 18:-0.0187928 19:-0.034705 20:-0.170745 21:0.1747 22:0.112085 23:-0.136106 24:-0.363747 25:0.33405 26:0.155847 27:-0.304711 28:0.277474 29:0.276509 30:-0.341724 31:-0.11911 32:1.59412e-14 33:-0.405415 34:0.160778 35:-0.106173 36:0.165776 37:-0.0563786 38:0.0575886 39:0.0567248 
-1 1 1:0.98267 2:0.0919083 3:0.266862 4:-0.0382667 5:-0.253936 6:-6.10427e-15 7:-9.48637e-16 8:0.0643564 9:0.100166 10:-6.87418e-15 11:1.37759e-14 12:-0.00056827 13:-0.0118535 14:-3.07963e-15 15:3.07963e-15 16:6.90168e-15 17:0.030828 18:0.0365545 19:6.76419e-15 20:0 21:-0.00264892 22:-0.0523119 23:1.05312e-14 24:-1.37759e-14 25:3.62957e-15 26:0.0247037 27:0.0104577 28:-6.81919e-15 29:-0.122845 30:-0.0190522 31:0.292122 32:0.492945 33:-0.110403 34:0.148334 35:-0.0122797 36:0.0582485 37:-0.0327517 38:0.010682 39:0.10856 
-0.8151113271952205 -0.4463158496097189 1:0.638428 2:-0.0629971 3:0.125232 4:-0.0133957 5:-0.0163391 6:7.60088e-16 7:-7.60088e-16 8:5.06726e-15 9:-4.30717e-15 10:0.0688865 11:0.00313075 12:0 13:0 14:2.59697e-15 15:-0.00471376 16:-0.0456821 17:3.29372e-15 18:0.0304495 19:0.0657334 20:-4.9089e-15 21:7.53754e-15 22:-3.76877e-15 23:-7.95025e-05 24:-0.0480998 25:1.3935e-15 26:0.11708 27:2.77545 28:-0.273342 29:-0.0148072 30:-0.0286437 31:0.00516918 32:0.0012616 33:0.0204082 34:0.0532354 35:0.005006 36:0.0190925 37:0.0284074 38:1.83249 39:0.717195 
-1 -1 1:0.400132 2:-0.219043 3:-0.0382803 4:5.42697e-16 5:0.0138144 6:0.00266288 7:-5.00951e-16 8:-3.71538e-15 9:-9.20764e-05 10:-0.000179147 11:7.38902e-15 12:-4.21634e-15 13:3.17269e-15 14:-0.0140542 15:-0.0127385 16:3.04745e-15 17:-3.04745e-15 18:-0.0134812 19:-0.0151541 20:3.38142e-15 21:-0.0305764 22:-1.54434 23:-1.14129 24:-0.0139711 25:0.0981048 26:0.00568753 27:-2.12904e-15 28:-0.0388261 29:-0.0554878 30:1.08539e-15 31:0.202091 32:-0.0211893 33:-0.0579044 34:0.000439274 35:-0.0169549 36:-0.0275709 37:-2.16512 38:-0.483323 39:0.0125074 
-0.8073119433148326 -0 1:0.526926 2:0 3:0 4:0 5:0 6:0 7:0 8:0 9:0 10:0 11:0 12:0 13:0 14:-0.000871345 15:-0.0407712 16:-4.99557e-15 17:-0.0208819 18:-0.00633197 19:-0.000203773 20:-0.00487878 21:2.03263e-16 22:0.0369719 23:-0.182802 24:-2.71614 25:-0.366986 26:-0.368147 27:-0.17044 28:7.50508e-15 29:-0.242005 30:-0.0525231 31:0.0940446 32:0.0740742 33:0 34:0 35:-0.0210392 36:-0.047556 37:-0.161429 38:2.84497 39:-0.390331 
-1 -0.4827078231013581 1:0.674669 2:0 3:0 4:0 5:0 6:0 7:0 8:0 9:0 10:0 11:0 12:0 13:0 14:0 15:0 16:0 17:0 18:0 19:0 20:0 21:0 22:0 23:0 24:0 25:0 26:0 27:-0.76594 28:-2.19574 29:-0.00396683 30:0.035147 31:0.19753 32:0.103064 33:0 34:0 35:0 36:0 37:0 38:-0.301663 39:-2.51584 
-0.7043797112314206 -0.07439277620676588 1:0.551093 2:-0.031779 3:-0.032569 4:0 5:0 6:0 7:0 8:0 9:0 10:0.0731617 11:0.0082903 12:-5.49073e-15 13:4.49241e-16 14:-0.0114007 15:-0.0700513 16:0 17:0 18:0 19:0.0479655 20:0.0726581 21:3.32771e-16 22:-0.00541089 23:-0.0245529 24:0.00218286 25:0.13027 26:2.6735 27:0.0145859 28:0.0163321 29:0.0413268 30:0.172734 31:0 32:0 33:-0.0242173 34:0.0590229 35:-0.0211506 36:0.00425852 37:0.0627039 38:2.72442 39:0.269348 
-1 -1 1:0.498634 2:-0.107316 3:-0.0496284 4:0 5:0 6:0 7:0 8:0 9:0 10:0 11:0 12:0 13:0 14:0 15:0 16:0 17:0 18:0 19:0 20:0 21:0 22:0.0196307 23:2.62171 24:-0.0188925 25:7.92733e-15 26:-0.0486559 27:-0.0322482 28:-0.0628685 29:-0.189048 30:0.000622066 31:0.00719027 32:-0.270246 33:-0.0513536 34:0 35:0 36:0 37:1.22748 38:1.32675 39:-0.323802 
-0.1993866926133327 -0 1:0.430416 2:0 3:0 4:0 5:0 6:0 7:0 8:0 9:0 10:0 11:0 12:0 13:0 14:0 15:0 16:0 17:0 18:0 19:0 20:0 21:-3.14159 22:0.239816 23:0.0384838 24:0.223993 25:0.0939068 26:6.30942e-15 27:0.12729 28:0.227058 29:1.24802e-15 30:0.127114 31:0.0294877 32:0.0475865 33:0 34:0 35:0 36:0 37:-2.85041 38:0.425004 39:0.354886 
-0.3896437456492676 -0.3190377642951598 1:0.754475 2:0 3:-0.241289 4:-0.0296576 5:-4.86193e-15 6:-0.0429048 7:-0.00136303 8:6.94561e-16 9:-0.0143247 10:-0.0621605 11:3.77668e-15 12:-2.90848e-15 13:0.0329355 14:0.0779267 15:0 16:-2.12709e-15 17:-0.00219838 18:-0.0305845 19:6.07741e-16 20:0.00383501 21:0.140007 22:-7.37971e-16 23:-0.0111198 24:-0.0331626 25:0.042533 26:-0.152844 27:-0.0298188 28:0.16184 29:2.80548 30:-0.156012 31:-0.116953 32:-0.0232471 33:-0.175859 34:-0.0723605 35:0.0758755 36:-0.00472276 37:0.121388 38:-0.0798212 39:2.69456 
-1 -0.1958030979283385 1:0.502136 2:0.286376 3:0.0402584 4:0.0174065 5:-0.0085808 6:-0.00511697 7:-3.25021e-15 8:4.07754e-15 9:-0.0238206 10:-0.128829 11:0.0360112 12:0.10275 13:0.00809326 14:0.0360885 15:0.0060277 16:0.0155799 17:0.00400925 18:0.0684443 19:-2.54107e-15 20:0.0430828 21:0.0421064 22:-0.24635 23:0.237972 24:1.47686 25:1.90017 26:0.105057 27:-0.0435098 28:-0.176391 29:0.0186986 30:0.0622055 31:0.196836 32:0.0928179 33:0.0905498 34:-0.0780258 35:0.104929 36:0.0898386 37:0.100745 38:-2.91076 39:0.0585126 
-1 -1 1:0.630054 2:0.0609626 3:4.6723e-15 4:0.233948 5:0.0138632 6:-4.44291e-15 7:-0.0353517 8:-0.0850818 9:0 10:0 11:0.0355348 12:0.173275 13:1.88341e-15 14:0 15:-0.00203442 16:-0.0551025 17:0 18:1.64194e-15 19:0.158392 20:0.0686204 21:-2.60779e-15 22:-0.070114 23:-0.013466 24:0.0207776 25:0.0145237 26:-0.727528 27:-1.8538 28:-0.430073 29:0.0867073 30:0.127439 31:-0.049496 32:0.175071 33:0.165939 34:-0.0205124 35:0.133029 36:0.0538911 37:0.0766473 38:-2.08687 39:-0.717942 
-1 -1 1:0.720505 2:0.519523 3:-0.00734638 4:-0.0175153 5:0.00852401 6:0.0543729 7:0 8:9.26424e-16 9:0 10:2.20026e-15 11:-2.20026e-15 12:-0.158736 13:-0.00269992 14:-1.15803e-15 15:2.31606e-15 16:0.0640467 17:0.0649902 18:-4.97953e-15 19:0 20:0 21:0.0146917 22:0.00535469 23:0 24:-3.12668e-15 25:0.0801458 26:0.0652686 27:-0.182434 28:1.38609 29:1.46007 30:0.0927052 31:0.0809833 32:-0.450912 33:0.150859 34:-0.0260267 35:-0.105838 36:0.113054 37:0.0187078 38:0.143735 39:2.66651 
-0.01345099820272695 -0 1:0.576023 2:0.273928 3:0.163258 4:4.62487e-15 5:-4.62487e-15 6:2.72943e-15 7:0.0352407 8:0.00655999 9:-1.06145e-15 10:1.89544e-15 11:0 12:-0.00305218 13:-0.00342022 14:3.79088e-15 15:-5.68632e-15 16:3.79088e-15 17:-0.0286413 18:-0.0224242 19:7.58176e-17 20:-1.89544e-15 21:0.0599656 22:0.11327 23:-1.13726e-15 24:-0.081892 25:-0.130097 26:-2.64198 27:-0.0127089 28:-0.0773638 29:-0.200936 30:0.0227878 31:-0.0395187 32:-0.324613 33:0.161684 34:0.0217778 35:-0.00570936 36:-0.045461 37:0.118942 38:-2.59694 39:-0.581188 
-0.3816376395628151 -0.2599350101874091 1:0.537243 2:-0.309707 3:0.0298582 4:0.0360838 5:-5.24715e-15 6:6.73004e-15 7:-0.00315032 8:-0.000802228 9:0 10:0.0899417 11:0.103948 12:1.03232e-14 13:-7.87072e-15 14:2.1673e-15 15:-0.0916619 16:-0.0574814 17:7.07224e-15 18:-4.22053e-15 19:0.202363 20:0.0714074 21:-2.45247e-15 22:-3.99239e-16 23:-0.237053 24:0.0586539 25:-1.53972 26:-1.10925 27:-0.818003 28:0.020408 29:0.0121965 30:-0.0245497 31:-0.01427 32:0.242261 33:-0.0337751 34:0.117326 35:0.0142189 36:0.0298683 37:0.0512216 38:3.12373 39:-0.31729 
-1 -1 1:0.629266 2:-0.0599066 3:-0.0380816 4:6.96748e-16 5:0.0964519 6:0.0794519 7:1.4864e-15 8:1.3935e-15 9:-0.0697987 10:-0.0185835 11:-2.18314e-15 12:-2.27604e-15 13:0.0291845 14:0.0118767 15:1.25415e-15 16:3.15859e-15 17:0.0460533 18:0.00381061 19:0.0163397 20:0.0707885 21:0 22:-0.138459 23:0.114813 24:0.0206986 25:-1.99689 26:-0.421588 27:0.0155901 28:0.00231077 29:-0.0325604 30:-0.0165803 31:0.252003 32:-0.284079 33:0.122194 34:-0.0639406 35:0.0334489 36:0.0777405 37:0.0208333 38:-2.26767 39:-0.0829402 
-1 -1 1:0.552485 2:-0.274483 3:0.148309 4:0.376302 5:-3.10715e-15 6:-0.0598774 7:-0.125913 8:1.12987e-15 9:-3.89807e-15 10:0.0352907 11:0.00955929 12:0 13:0 14:-0.0564142 15:-0.0768126 16:2.48572e-15 17:1.24286e-15 18:0.0804136 19:0.0803491 20:1.46884e-15 21:-0.0157159 22:-0.0838986 23:-1.01689e-15 24:0.132067 25:1.41334 26:1.62925 27:-0.154938 28:-0.00604707 29:0.0364783 30:-0.259085 31:-0.385006 32:0.0136181 33:0.179901 34:-0.0466146 35:-0.0671391 36:0.0480393 37:0.014596 38:2.84963 39:-0.237266 
-1 -1 1:0.846558 2:0.0889608 3:0.20295 4:-1.31142e-15 5:-0.0214502 6:-0.0119191 7:-9.36729e-16 8:0.00434805 9:0.0379055 10:-6.36975e-15 11:3.74691e-15 12:-1.87346e-15 13:3.27855e-15 14:0.0182797 15:0.00200552 16:-4.96466e-15 17:1.96713e-15 18:1.21775e-15 19:-0.015537 20:-0.15553 21:1.68611e-15 22:1.40509e-15 23:-4.87099e-15 24:0.0802191 25:0.0649352 26:3.27855e-15 27:0.019179 28:0.0288009 29:-0.0553808 30:-2.17711 31:-0.354792 32:0 33:0.094178 34:0.0381871 35:0.0147126 36:-0.0410171 37:-0.104469 38:0.141936 39:-2.12992 
-1 -1 1:0.588998 2:0.105172 3:0.019284 4:0.038168 5:-4.81584e-15 6:5.21531e-15 7:-0.0501345 8:-0.106509 9:1.50911e-15 10:0 11:0.0111822 12:0.0125563 13:4.30541e-15 14:0 15:-1.37596e-15 16:0.0244684 17:0.00529772 18:2.1749e-15 19:0.00269382 20:0.0197675 21:-1.02087e-15 22:0.000492263 23:0.000954914 24:-0.03242 25:-0.809032 26:-1.7951 27:0.0291305 28:0.0687029 29:0 30:-0.0582653 31:0.0194185 32:0.0941404 33:0.0120451 34:-0.0962549 35:0.0211251 36:0.0299382 37:0.00891566 38:-2.47151 39:-0.0698112 
-1 -0.6674141999175831 1:0.415029 2:-0.0551647 3:0.258831 4:0.0194683 5:-0.00116237 6:-0.0157852 7:9.30387e-17 8:-9.30387e-17 9:0.164428 10:0.072768 11:1.48862e-15 12:2.41901e-15 13:0.0188982 14:0.00583176 15:0.214064 16:0.0298097 17:4.41934e-15 18:0.0116281 19:0.00236271 20:-0.0752365 21:-0.292356 22:-2.26393 23:-0.227512 24:2.2997e-15 25:0 26:0 27:0 28:0 29:2.2997e-15 30:-4.59941e-15 31:-1.05773e-29 32:4.59941e-15 33:0.117222 34:0.215146 35:0.155775 36:0.122165 37:-2.45288 38:-0.383396 39:0 
-0.8619569213983764 -0.6902691411590816 1:0.728389 2:0 3:0 4:0 5:0 6:0 7:-0.0132235 8:-0.0367349 9:1.92363e-16 10:-1.92363e-16 11:8.15792e-15 12:-1.61322e-14 13:-0.125869 14:-0.0691514 15:9.793e-16 16:0.0926597 17:0.0304766 18:-6.94254e-15 19:1.48644e-14 20:-1.48644e-14 21:7.92184e-15 22:-9.793e-16 23:0.100587 24:0.0212555 25:0 26:0 27:-0.052871 28:-2.66904 29:0.0674179 30:0.230963 31:-0.254675 32:0.38204 33:-0.0157943 34:-0.0341641 35:-0.154619 36:0.0827346 37:0.0555937 38:-0.123932 39:-2.32184 
-1 -0.7933134578397438 1:0.506712 2:-0.0194278 3:-0.100522 4:4.12129e-15 5:0.0136381 6:0.00775826 7:0 8:-5.45464e-15 9:-0.0277043 10:-0.0253694 11:5.81829e-16 12:4.02432e-15 13:0.0709171 14:0.0443766 15:-5.57586e-16 16:5.57586e-16 17:-0.00597135 18:-0.00715125 19:-9.93958e-15 20:0.0924933 21:0.00435912 22:-0.0147676 23:-0.0885368 24:-1.39137 25:-1.4142 26:-0.0262855 27:0.0391548 28:0.0815667 29:0 30:0.0223339 31:0.00795988 32:-0.0920571 33:-0.0355239 34:-0.0447939 35:0.0978736 36:0.0228536 37:-0.129546 38:-2.68712 39:0.0741852 
-1 -0.6506450496344695 1:0.524009 2:0 3:0 4:0 5:0 6:0 7:0 8:0 9:0 10:0 11:0 12:0 13:0 14:0 15:0 16:0 17:-6.11004e-15 18:1.22201e-14 19:-6.11004e-15 20:0 21:0 22:0 23:-3.14159 24:0.292839 25:0.60695 26:0.181049 27:-0.11276 28:-0.182681 29:1.724e-14 30:0.0816217 31:0.0835269 32:-0.10431 33:0 34:0 35:0 36:0 37:-0.578862 38:-1.62926 39:-0.0710267 
-1 -1 1:0.600676 2:0.110594 3:0.32775 4:0.0687546 5:-0.185382 6:0.167319 7:0.648418 8:-0.509521 9:-0.0732783 10:-0.0962697 11:0.161866 12:-0.155112 13:-0.0572682 14:0.101052 15:0.293822 16:-0.214741 17:0.0346271 18:-0.137019 19:0.125642 20:0.0260414 21:0.0524518 22:-0.0229975 23:-0.177577 24:0.210097 25:-0.122194 26:0.366149 27:2.19837 28:0.0405956 29:0.244821 30:0.0191149 31:-0.304531 32:0.159735 33:0.377907 34:-0.11784 35:0.0507946 36:0.0140818 37:0.0467967 38:1.89357 39:0.799343 
-1 -1 1:0.675861 2:-0.0826496 3:0.0244258 4:0.0383136 5:0.0636004 6:-0.00444105 7:-0.0862188 8:1.11996e-15 9:-0.00520233 10:-0.0211074 11:7.0145e-15 12:0.00761365 13:0.0678368 14:-5.48192e-15 15:0.056892 16:0.0358643 17:0.0840552 18:-0.309007 19:-0.124224 20:0.234299 21:-1.23785e-15 22:-0.0027979 23:-0.0242225 24:-0.21652 25:0.240063 26:0.00217196 27:2.44135 28:1.10616 29:0.258152 30:-0.0821194 31:0.0115773 32:0.332732 33:0.037397 34:-0.0633474 35:0.105675 36:-0.0954695 37:-0.0312099 38:0.0233004 39:-2.40848 
-0.3926075807564685 -0 1:0.590894 2:-0.27156 3:0.333986 4:0.0940536 5:-0.0265572 6:-0.0678978 7:-5.71643e-05 8:-0.0100435 9:-5.21623e-15 10:0.0174038 11:0.0244322 12:-0.0243514 13:0.0341918 14:0.12487 15:-0.148 16:-0.101586 17:-0.0166972 18:-0.214394 19:0.677106 20:-0.477033 21:-0.00167596 22:0.129168 23:-0.064035 24:-0.101455 25:0.107858 26:2.62817 27:0.577148 28:0.276007 29:-0.00734109 30:-0.0275286 31:0.190611 32:0.0786291 33:0.0896527 34:-0.00533702 35:0.0267575 36:-0.0787937 37:-0.0331695 38:-2.87832 39:0.193362 
-0.7701863914387831 -0.4859040548614253 1:0.77796 2:-0.309469 3:0.0490483 4:0.00152413 5:-2.56151e-15 6:0.0165274 7:0.0703676 8:4.61072e-15 9:0 10:0.0230446 11:0.0756239 12:-5.57129e-15 13:-1.98517e-15 14:-0.147039 15:-0.0290425 16:0 17:0.140251 18:0.107747 19:5.57129e-15 20:0.0107071 21:0.0122879 22:-3.58612e-15 23:-0.0430456 24:-0.0986064 25:0 26:-0.00223036 27:-0.172881 28:0.21002 29:-1.52975 30:-1.37662 31:-0.395665 32:0.385154 33:0.00346128 34:0.0944143 35:-0.0812935 36:0.172694 37:0.000928436 38:-0.131326 39:-2.83341 
-1 -1 1:0.641248 2:-0.0203175 3:0.0244809 4:0.0175419 5:-1.75936e-15 6:1.75936e-15 7:0.0285217 8:0.00403873 9:3.56627e-15 10:0 11:-0.0172364 12:-0.0112257 13:1.12219e-14 14:0 15:-0.0139783 16:-0.00783643 17:0 18:-1.80691e-15 19:0.00793447 20:0.00922912 21:2.56772e-15 22:0.0344727 23:0.141662 24:3.23342e-15 25:-0.0225175 26:-0.0299934 27:-3.08278 28:-0.3048 29:-0.22863 30:-0.0492427 31:-0.319862 32:0.210752 33:0.0355878 34:0.00586571 35:-0.0259858 36:-0.0065921 37:0.107619 38:2.11244 39:0.440891 
-1 -1 1:0.726886 2:-0.0923343 3:3.91735e-15 4:-3.91735e-15 5:0 6:0.00352387 7:0.00703912 8:-3.07036e-15 9:6.88184e-15 10:0.00174236 11:0.0503995 12:0 13:3.70561e-15 14:-1.05874e-14 15:0.00197717 16:0.0226529 17:-3.28211e-15 18:0 19:-0.0310947 20:-0.0086571 21:-0.011097 22:-0.0170081 23:0.0148917 24:0.224307 25:4.23498e-16 26:0.00593906 27:0.00163656 28:-1.58641 29:-1.89439 30:-0.0874979 31:-0.0728539 32:-0.105987 33:-0.0166526 34:0.0309073 35:0.0322867 36:0.000267356 37:0.0174663 38:0.0456401 39:2.80638 
-0.5504025847950503 -0 1:0.720545 2:-0.0787641 3:0 4:0.030026 5:0.000498833 6:0 7:-0.245288 8:-0.0754431 9:-5.49854e-15 10:2.21469e-15 11:0.0756462 12:0.0455476 13:0 14:-1.29827e-15 15:0.0255358 16:0.0137168 17:1.56556e-15 18:-2.21469e-15 19:-0.0100584 20:-0.000775383 21:0.0499013 22:0.14022 23:2.6729e-16 24:-0.00444388 25:-9.12365e-05 26:0.0451563 27:0.00480212 28:-1.75568 29:-1.26173 30:0.0805981 31:0.00948463 32:-0.131189 33:-0.137871 34:-0.130328 35:0.0881981 36:0.017833 37:0.148478 38:-0.00685923 39:-2.89663 
-1 -1 1:0.645697 2:-0.214223 3:-0.00511909 4:0 5:0.111105 6:0.0433494 7:0 8:-3.75326e-15 9:7.50652e-15 10:-0.0115706 11:-0.00205416 12:2.86433e-15 13:-6.61759e-15 14:0.0055582 15:0.17816 16:-3.55572e-15 17:3.55572e-15 18:0 19:-0.00929419 20:-0.0394477 21:4.9385e-15 22:-3.25941e-15 23:0.106253 24:0.00152046 25:-0.0432303 26:-0.107157 27:-2.2496 28:-0.578978 29:-0.118482 30:-0.0386171 31:0.120311 32:-0.01826 33:0.0889114 34:0.00111144 35:0.0893402 36:0.0759508 37:0.0192619 38:-1.12537 39:-1.89212 
-1 -0.3006217470523265 1:0.50342 2:2.12486 3:0.832497 4:0.0423415 5:0.111748 6:-0.309141 7:0.0344115 8:0.022618 9:0.256036 10:0.0262254 11:-0.289569 12:-0.161594 13:0.19466 14:-0.00408542 15:0.0975547 16:-0.316721 17:0.390032 18:-0.128876 19:0.2186 20:0 21:-0.221294 22:0.120264 23:-0.415342 24:1.1683 25:0.918867 26:0.410231 27:0.0370885 28:0.186549 29:0.482931 30:-0.331401 31:-0.321374 32:0.427822 33:0.35523 34:0.048102 35:-0.100094 36:0.213126 37:-0.0565354 38:2.06499 39:0.437447 
-0.831450192725429 -0.3841632747742414 1:0.694507 2:0 3:-0.151873 4:-0.0279809 5:0.0779133 6:0.10194 7:0 8:-0.0684875 9:-0.0966612 10:2.41948e-14 11:0.0380458 12:0.00999417 13:-1.28819e-14 14:0.0118478 15:0.105261 16:0 17:0 18:-1.22558e-14 19:2.45116e-14 20:-1.22558e-14 21:-1.22558e-14 22:2.45116e-14 23:-1.22558e-14 24:0 25:0 26:0 27:0 28:3.01464 29:-0.273944 30:-0.196701 31:0.0142554 32:-0.271871 33:0.0403672 34:-0.101105 35:0.088044 36:0.0555842 37:0 38:0.0998484 39:2.43847 
-1 -1 1:0.678728 2:0 3:0 4:0 5:0 6:0 7:0 8:0 9:0 10:0 11:0 12:0 13:0 14:0 15:0 16:0 17:0 18:-2.09767e-14 19:4.19534e-14 20:-2.09767e-14 21:0 22:0 23:0 24:0 25:0 26:-0.859685 27:-1.43796 28:-0.380298 29:0.202052 30:-0.0116105 31:0.179065 32:-0.303948 33:0 34:0 35:0 36:0 37:0 38:-1.59979 39:-0.873389 
-1 -1 1:0.672371 2:-0.215196 3:0.0233048 4:-0.101586 5:-0.0288306 6:0.112608 7:0.240382 8:-0.115673 9:-0.0817225 10:0.0850666 11:0.142623 12:-1.49376e-14 13:-0.151314 14:-0.145232 15:0.0974421 16:0.0856687 17:-0.0260239 18:-0.101743 19:-0.25274 20:0.309283 21:0.279227 22:-0.0445276 23:-0.543982 24:0.136876 25:0.241796 26:0.0607795 27:1.7449 28:0.545427 29:0.00730995 30:0.51926 31:-0.436508 32:0.297765 33:0.0320993 34:0.114958 35:-0.0977082 36:-0.0747958 37:0.0872806 38:0.979964 39:1.68496 
-1 -1 1:0.593104 2:0.0766838 3:0.173463 4:0.0281529 5:0.020159 6:0.165189 7:-0.0317394 8:-0.110158 9:-0.0699247 10:-0.0866772 11:0.22046 12:0.0380992 13:-0.0432018 14:0.080401 15:-0.0980775 16:0.0755366 17:0.207158 18:-0.147523 19:-0.0182292 20:-0.363774 21:0.594973 22:-0.403037 23:0.0646815 24:0 25:0.0837938 26:0.0214599 27:2.48876 28:0.174959 29:0 30:0 31:0 32:0 33:0.227512 34:-0.0724943 35:0.10421 36:0.025237 37:0.00546295 38:1.75915 39:0.941074 
-0.08016179494673535 -0 1:0.544748 2:0 3:0 4:0 5:0 6:0 7:0 8:0 9:0 10:0 11:0 12:0 13:0 14:-0.0293623 15:-0.0812949 16:1.30175e-14 17:0.101698 18:0.00895902 19:0 20:0 21:0 22:0 23:0 24:0 25:3.14159 26:0 27:-0.619718 28:-0.16568 29:0.148455 30:-0.201377 31:0.257104 32:-0.351432 33:0 34:0 35:-0.0626817 36:0.0604427 37:0.00223898 38:2.80556 39:-0.399246 
-1 -0.2524593214902383 1:0.386388 2:0 3:0 4:0 5:0 6:-1.07269e-14 7:2.14537e-14 8:-1.07269e-14 9:0 10:0 11:0 12:0 13:0 14:0 15:0 16:0 17:0 18:0 19:0 20:0 21:0 22:3.14159 23:-0.192266 24:-0.07234 25:-0.37087 26:0.206869 27:0.139409 28:-0.0978108 29:0.0490363 30:-0.169954 31:0.295966 32:-0.243349 33:0 34:0 35:0 36:0 37:2.80349 38:-0.0998295 39:0.0625976 
-0.3762102911388796 -0 1:0.470163 2:0.121708 3:0.0105678 4:-0.132276 5:0.371426 6:0.152885 7:-0.0606641 8:-1.92823e-14 9:-0.146355 10:-0.0774903 11:-0.0424065 12:0.321375 13:-0.119535 14:0.203611 15:-0.190592 16:-0.412255 17:0.235325 18:0.115372 19:0.445464 20:-0.796162 21:0.262519 22:0.0607119 23:0.217956 24:-1.66296 25:-1.68886 26:0.105473 27:0.138644 28:0.14665 29:-0.186427 30:0.111324 31:0.364535 32:-0.622918 33:0.393008 34:-0.138915 35:0.0348048 36:-0.0473385 37:-0.189397 38:-2.7437 39:0.115381 
-1 -0 1:0.205104 2:0.106695 3:0.172693 4:0.0126546 5:-0.0899022 6:0.00974827 7:0.0764689 8:0.0986367 9:-0.0463483 10:-0.0508049 11:-0.102675 12:0.103523 13:0.220952 14:-0.160242 15:0.168001 16:0.0943931 17:-0.228445 18:-0.0974686 19:-0.184722 20:2.94746 21:0.0697393 22:0.290732 23:-0.220197 24:0.21008 25:-0.273704 26:0.315264 27:-0.105061 28:-0.011621 29:-0.0832255 30:-0.25417 31:0.672965 32:-0.532321 33:0.102606 34:0.00478431 35:0.222164 36:-0.0199509 37:2.8005 38:0.0275371 39:-0.0585581 
-1 -0.05030410614859711 1:0.460762 2:0.405943 3:0.176793 4:-8.67807e-16 5:-0.00414434 6:-0.0613357 7:-9.50249e-15 8:8.76485e-15 9:-0.036635 10:-0.104095 11:0 12:0.0239693 13:0.140013 14:-1.00449e-14 15:1.00449e-14 16:-0.0461304 17:-0.00936813 18:0.0503072 19:0.0639471 20:-0.133303 21:-0.0812817 22:0.297726 23:-0.376069 24:2.89741 25:-0.0849104 26:-0.0276552 27:0.175574 28:0.0125346 29:-0.240692 30:-6.33499e-15 31:0.0929995 32:-0.0713876 33:0.121313 34:-0.124087 35:0.12048 36:-0.00750995 37:0.296797 38:2.37039 39:-0.121253 
-0.4695644262494181 -0 1:0.402009 2:-0.281113 3:-7.96337e-15 4:-0.0074008 5:-0.0418866 6:0 7:7.89227e-15 8:-7.11015e-15 9:0.107918 10:0.0499457 11:1.60778e-14 12:-1.60778e-14 13:-0.00623076 14:-0.00803135 15:-8.03447e-15 16:-0.063732 17:-0.0740328 18:0.0295095 19:0.155838 20:-0.0783591 21:0.0142433 22:0.0641158 23:3.14159 24:0 25:-0.357558 26:-0.173103 27:0.0551976 28:-0.0513702 29:-0.106445 30:-0.00845622 31:0.1015 32:0.0345814 33:-0.109945 34:0.145404 35:-0.0156943 36:-0.0434476 37:-2.86629 38:-0.643389 39:-0.108019 
